Max training iterations: 10000
Initial neighbourhood radius: 3.15
Initial learning rate: 0.5
Neighbourhood decay: 2
Learning decay: 1
Proximity decay: 2
0.981284 -1.4013e-45 -0.124348 -0.147036
0.983179 -1.4013e-45 -0.120655 -0.137117
0.96987 -1.4013e-45 -0.216926 -0.110882
0.96958 1.4013e-45 -0.221752 -0.10364
0.963081 -1.4013e-45 -0.017251 -0.268657
0.963144 -1.4013e-45 -0.0353997 -0.266646
0.963107 1.4013e-45 -0.0140916 -0.268751
0.96311 -1.4013e-45 -0.0330288 -0.267074
0.999926 -1.4013e-45 0.00491251 0.0110927
0.999708 -1.4013e-45 0.0149285 0.0189888
0.999926 1.4013e-45 0.0049125 0.0110927
0.999708 -1.4013e-45 0.0149285 0.0189888
0.999926 1.4013e-45 0.00491252 0.0110927
0.999708 1.4013e-45 0.0149285 0.0189888
0.999926 1.4013e-45 0.00491252 0.0110927
0.999708 -1.4013e-45 0.0149285 0.0189888
0.99957 -1.4013e-45 0.0191569 0.022202
0.999829 -1.4013e-45 0.0101532 0.0154554
0.999829 1.4013e-45 0.0101532 0.0154554
0.999829 -1.4013e-45 0.0101532 0.0154554
0.99629 -1.4013e-45 0.0843954 -0.016843
0.992817 1.4013e-45 0.117827 -0.0207817
0.994929 -1.4013e-45 0.0990435 -0.0175054
0.992522 -1.4013e-45 0.119738 -0.0237373
0.996473 -1.4013e-45 0.0824359 -0.0156888
0.99488 -1.4013e-45 0.0986384 -0.0220227
0.999387 -1.4013e-45 0.0114872 -0.033076
0.998384 -1.4013e-45 0.0398972 -0.0404633
0.999411 -1.4013e-45 0.0112007 -0.0324339
0.998513 1.4013e-45 0.0359756 -0.0409591
0.998955 -1.4013e-45 0.0269344 -0.0369376
0.997989 1.4013e-45 0.0463617 -0.0432216
0.999041 1.4013e-45 0.0233772 -0.0370272
0.998328 1.4013e-45 0.04042 -0.0413275
0.998866 -1.4013e-45 0.028473 -0.0381508
0.998393 -1.4013e-45 0.038774 -0.0413286
0.998091 -1.4013e-45 0.045011 -0.0423009
0.997654 1.4013e-45 0.0522081 -0.0442869
0.998147 1.4013e-45 0.0438586 -0.0421854
0.998366 -1.4013e-45 0.0395369 -0.0412554
0.997231 1.4013e-45 0.0592209 -0.0449856
0.999283 -1.4013e-45 0.0183671 -0.0330949
0.998941 -1.4013e-45 0.026677 -0.0374781
0.998781 1.4013e-45 0.0322038 -0.0374141
0.996927 -1.4013e-45 0.0626361 -0.0470459
0.998319 1.4013e-45 0.0402416 -0.0417067
0.997075 -1.4013e-45 0.0607569 -0.0463649
0.998985 -1.4013e-45 0.0262424 -0.0366155
0.999317 -1.4013e-45 0.0156523 -0.03347
0.999211 1.4013e-45 0.022476 -0.0327366
0.987424 -1.4013e-45 0.143876 -0.0655176
0.983531 1.4013e-45 0.166131 -0.0711826
0.984632 1.4013e-45 0.16059 -0.068635
0.983645 1.4013e-45 0.165064 -0.0720825
0.985565 1.4013e-45 0.155735 -0.066398
0.98583 -1.4013e-45 0.152503 -0.069872
0.988759 1.4013e-45 0.137865 -0.0578658
0.986024 1.4013e-45 0.153718 -0.0642451
0.98633 1.4013e-45 0.150761 -0.0665203
0.984094 -1.4013e-45 0.162622 -0.0715114
0.983182 -1.4013e-45 0.16789 -0.0718763
0.983076 1.4013e-45 0.168788 -0.0712255
0.982347 1.4013e-45 0.171969 -0.0736324
0.983515 -1.4013e-45 0.165919 -0.0718935
0.982839 -1.4013e-45 0.169721 -0.0722685
0.984389 -1.4013e-45 0.16233 -0.0680195
0.985527 1.4013e-45 0.155378 -0.0677852
0.987057 1.4013e-45 0.148059 -0.0616158
0.985353 -1.4013e-45 0.157264 -0.0659396
0.986002 1.4013e-45 0.153405 -0.065329
0.983943 -1.4013e-45 0.163686 -0.0711535
0.984931 -1.4013e-45 0.159701 -0.0663793
0.988335 -1.4013e-45 0.139764 -0.0604932
0.986092 -1.4013e-45 0.123957 -0.110708
0.96335 1.4013e-45 -0.20683 -0.17082
0.963274 1.4013e-45 -0.204511 -0.174009
0.962001 1.4013e-45 -0.21091 -0.173409
0.963293 -1.4013e-45 -0.203202 -0.175428
0.960673 1.4013e-45 -0.213973 -0.17698
0.960936 1.4013e-45 -0.212345 -0.177516
0.960275 1.4013e-45 -0.215489 -0.1773
0.962024 1.4013e-45 -0.20816 -0.176574
0.961042 1.4013e-45 -0.21348 -0.175569
0.961064 -1.4013e-45 -0.212639 -0.176467
0.960398 1.4013e-45 -0.214325 -0.178048
0.960016 1.4013e-45 -0.215789 -0.178339
0.959791 -1.4013e-45 -0.217105 -0.177951
0.963075 1.4013e-45 -0.20675 -0.172453
0.964496 1.4013e-45 -0.197973 -0.174799
0.963857 1.4013e-45 -0.203173 -0.172338
0.960584 -1.4013e-45 -0.214842 -0.176413
0.96128 -1.4013e-45 -0.212145 -0.175887
0.961769 -1.4013e-45 -0.208948 -0.177037
0.96192 -1.4013e-45 -0.209235 -0.175869
0.962836 1.4013e-45 -0.205102 -0.175726
0.961372 1.4013e-45 -0.212981 -0.174366
0.964937 -1.4013e-45 -0.197622 -0.172746
0.958319 -1.4013e-45 -0.253737 -0.131308
0.978737 1.4013e-45 0.142484 -0.147553
0.977481 -1.4013e-45 0.149213 -0.14922
0.97797 1.4013e-45 0.143395 -0.151699
0.97712 -1.4013e-45 0.151987 -0.148782
0.977331 -1.4013e-45 0.150871 -0.148533
0.97754 -1.4013e-45 0.147776 -0.150256
0.978308 -1.4013e-45 0.140564 -0.152171
0.9779 1.4013e-45 0.146247 -0.149407
0.978711 -1.4013e-45 0.136293 -0.153454
0.977573 1.4013e-45 0.148038 -0.149789
0.976732 -1.4013e-45 0.156536 -0.146596
0.976996 1.4013e-45 0.154372 -0.14713
0.976651 1.4013e-45 0.15755 -0.14605
0.977325 1.4013e-45 0.151543 -0.147885
0.976755 -1.4013e-45 0.156869 -0.146088
0.977184 -1.4013e-45 0.153505 -0.146789
0.977167 -1.4013e-45 0.153264 -0.147158
0.977617 -1.4013e-45 0.149727 -0.147807
0.977021 1.4013e-45 0.155243 -0.146047
0.977712 1.4013e-45 0.149441 -0.147468
0.977328 1.4013e-45 0.152964 -0.1464
0.977608 1.4013e-45 0.15102 -0.146545
0.977472 -1.4013e-45 0.152015 -0.146426
0.978 -1.4013e-45 0.146673 -0.148333
0.977388 1.4013e-45 0.151786 -0.147218
0.977161 -1.4013e-45 0.153055 -0.147413
0.976613 1.4013e-45 0.157777 -0.146059
0.977065 1.4013e-45 0.15337 -0.147724
0.979242 -1.4013e-45 0.130695 -0.154933
0.980097 1.4013e-45 0.116404 -0.16081
0.979023 -1.4013e-45 0.130912 -0.15613
0.978682 -1.4013e-45 0.134957 -0.154816
0.978053 1.4013e-45 0.141953 -0.15252
0.978535 1.4013e-45 0.135647 -0.155142
0.979294 -1.4013e-45 0.137697 -0.148404
0.97837 1.4013e-45 0.143656 -0.148845
0.979086 1.4013e-45 0.13551 -0.151748
0.978162 -1.4013e-45 0.143701 -0.150162
0.977547 -1.4013e-45 0.149328 -0.14867
0.978718 -1.4013e-45 0.137144 -0.152656
0.977449 1.4013e-45 0.149509 -0.149134
0.978566 1.4013e-45 0.137495 -0.153311
0.977927 -1.4013e-45 0.144129 -0.151279
0.977192 -1.4013e-45 0.151591 -0.148717
0.977646 1.4013e-45 0.1467 -0.150623
0.97709 1.4013e-45 0.152085 -0.148882
0.979688 -1.4013e-45 0.121134 -0.159805
0.97889 -1.4013e-45 0.132137 -0.15593
0.979238 1.4013e-45 0.126672 -0.15826
0.978786 -1.4013e-45 0.132551 -0.156231
0.980088 1.4013e-45 0.1224 -0.156353
0.978906 1.4013e-45 0.134872 -0.153469
0.979647 1.4013e-45 0.123353 -0.158355
0.979011 -1.4013e-45 0.133097 -0.154345
0.97829 -1.4013e-45 0.140701 -0.152158
0.979417 1.4013e-45 0.127296 -0.156647
0.978211 1.4013e-45 0.140857 -0.152519
0.979191 -1.4013e-45 0.128139 -0.157369
0.97873 -1.4013e-45 0.133858 -0.155463
0.977886 1.4013e-45 0.143798 -0.151857
0.978175 1.4013e-45 0.140283 -0.153281
0.977815 -1.4013e-45 0.144162 -0.151973
0.978987 1.4013e-45 0.138551 -0.14963
0.980041 1.4013e-45 0.126357 -0.153471
0.97882 1.4013e-45 0.137091 -0.152047
0.978343 -1.4013e-45 0.142143 -0.15047
0.979365 -1.4013e-45 0.129133 -0.155463
0.978142 -1.4013e-45 0.142149 -0.151761
0.977943 1.4013e-45 0.144289 -0.151023
0.977365 1.4013e-45 0.149906 -0.149284
0.978245 -1.4013e-45 0.140718 -0.15243
0.977302 -1.4013e-45 0.150174 -0.149428
0.978119 1.4013e-45 0.141279 -0.152721
0.977757 -1.4013e-45 0.145087 -0.151462
0.978837 1.4013e-45 0.142482 -0.146892
0.9774 -1.4013e-45 0.150548 -0.148409
0.978184 -1.4013e-45 0.141841 -0.151777
0.977239 -1.4013e-45 0.151084 -0.148924
0.979045 1.4013e-45 0.135288 -0.152213
0.977875 -1.4013e-45 0.146153 -0.149664
0.978757 -1.4013e-45 0.135402 -0.153953
0.977288 1.4013e-45 0.150076 -0.149617
0.978304 1.4013e-45 0.144673 -0.148295
0.977884 -1.4013e-45 0.147971 -0.147806
0.978964 1.4013e-45 0.13749 -0.150754
0.977792 1.4013e-45 0.147579 -0.148808
0.978855 -1.4013e-45 0.137187 -0.151733
0.978121 -1.4013e-45 0.143924 -0.150215
0.977934 1.4013e-45 0.14545 -0.149967
0.977001 1.4013e-45 0.153983 -0.147504
0.977751 -1.4013e-45 0.146005 -0.150615
0.977333 -1.4013e-45 0.150421 -0.148972
0.976785 1.4013e-45 0.155442 -0.147411
0.97723 1.4013e-45 0.150906 -0.149163
0.978194 1.4013e-45 0.146842 -0.146882
0.977782 1.4013e-45 0.14975 -0.14669
0.978137 -1.4013e-45 0.146173 -0.147926
0.977369 1.4013e-45 0.151796 -0.147336
0.97702 -1.4013e-45 0.154763 -0.146563
0.977863 -1.4013e-45 0.146658 -0.149249
0.976931 -1.4013e-45 0.154943 -0.146962
0.977795 1.4013e-45 0.146774 -0.149578
0.977216 -1.4013e-45 0.152076 -0.148059
0.976816 1.4013e-45 0.15588 -0.146739
0.977271 1.4013e-45 0.151333 -0.14846
0.976722 -1.4013e-45 0.156257 -0.146963
0.97729 -1.4013e-45 0.152983 -0.146632
0.976942 -1.4013e-45 0.155842 -0.145936
0.977235 -1.4013e-45 0.15299 -0.146988
0.976748 -1.4013e-45 0.156775 -0.146235
0.979526 -1.4013e-45 0.1239 -0.158673
0.978997 -1.4013e-45 0.130764 -0.156416
0.979365 1.4013e-45 0.124566 -0.159149
0.978686 1.4013e-45 0.133889 -0.155717
0.979227 1.4013e-45 0.133449 -0.152661
0.978397 -1.4013e-45 0.141172 -0.151027
0.979761 1.4013e-45 0.12642 -0.155199
0.978319 1.4013e-45 0.141042 -0.151657
0.979451 1.4013e-45 0.126974 -0.156698
0.978899 1.4013e-45 0.133382 -0.154812
0.978852 -1.4013e-45 0.13508 -0.153627
0.977786 1.4013e-45 0.145932 -0.15046
0.978596 -1.4013e-45 0.13585 -0.154577
0.97776 -1.4013e-45 0.145263 -0.151275
0.977412 -1.4013e-45 0.148751 -0.150131
0.97769 1.4013e-45 0.14563 -0.151375
0.978345 1.4013e-45 0.145432 -0.147277
0.979078 -1.4013e-45 0.137922 -0.149611
0.978248 -1.4013e-45 0.144197 -0.149126
0.97783 -1.4013e-45 0.147953 -0.148185
0.978744 -1.4013e-45 0.13769 -0.151993
0.977669 1.4013e-45 0.147848 -0.149347
0.977483 -1.4013e-45 0.149495 -0.148925
0.976925 -1.4013e-45 0.154554 -0.147415
0.977776 1.4013e-45 0.146332 -0.150139
0.976866 1.4013e-45 0.154793 -0.147555
0.977664 -1.4013e-45 0.146775 -0.150431
0.977315 -1.4013e-45 0.150159 -0.149356
0.977679 1.4013e-45 0.150494 -0.146613
0.976904 -1.4013e-45 0.1558 -0.146236
0.977372 1.4013e-45 0.151163 -0.147964
0.976815 -1.4013e-45 0.156024 -0.14659
0.977351 1.4013e-45 0.152799 -0.146414
0.976876 1.4013e-45 0.156186 -0.146013
0.977164 1.4013e-45 0.153385 -0.147049
0.976822 -1.4013e-45 0.156297 -0.146254
0.978294 1.4013e-45 0.146464 -0.146589
0.978731 1.4013e-45 0.142236 -0.147833
0.978244 1.4013e-45 0.145439 -0.147939
0.977487 -1.4013e-45 0.150718 -0.147662
0.978318 -1.4013e-45 0.141682 -0.151062
0.977333 1.4013e-45 0.150907 -0.148482
0.977278 -1.4013e-45 0.151729 -0.148004
0.976935 1.4013e-45 0.154768 -0.147121
0.977751 -1.4013e-45 0.14673 -0.14991
0.976841 1.4013e-45 0.155119 -0.147374
0.977683 -1.4013e-45 0.146977 -0.150113
0.977119 1.4013e-45 0.152312 -0.148459
0.978909 1.4013e-45 0.137785 -0.15084
0.978411 -1.4013e-45 0.142034 -0.150124
0.97974 1.4013e-45 0.127474 -0.154467
0.978288 1.4013e-45 0.141653 -0.151285
0.97954 -1.4013e-45 0.127639 -0.155594
0.978643 1.4013e-45 0.137185 -0.153094
0.978426 -1.4013e-45 0.139542 -0.152353
0.977445 1.4013e-45 0.149241 -0.149429
0.978212 -1.4013e-45 0.140308 -0.153019
0.977781 -1.4013e-45 0.145404 -0.151002
0.977218 1.4013e-45 0.150913 -0.14923
0.977668 1.4013e-45 0.145966 -0.15119
0.979619 1.4013e-45 0.124172 -0.157884
0.978755 1.4013e-45 0.134575 -0.154689
0.979347 -1.4013e-45 0.125185 -0.158769
0.978304 -1.4013e-45 0.138599 -0.153987
0.979961 1.4013e-45 0.119004 -0.159732
0.978599 -1.4013e-45 0.13625 -0.154208
0.979143 1.4013e-45 0.128327 -0.157514
0.978455 1.4013e-45 0.136804 -0.154631
0.980389 -1.4013e-45 0.119949 -0.156364
0.979332 -1.4013e-45 0.13091 -0.154178
0.97994 -1.4013e-45 0.120903 -0.15843
0.978653 -1.4013e-45 0.136802 -0.153371
0.978238 -1.4013e-45 0.14114 -0.152082
0.979238 1.4013e-45 0.12866 -0.15665
0.978114 1.4013e-45 0.141492 -0.152556
0.979113 -1.4013e-45 0.129185 -0.156998
0.978419 1.4013e-45 0.137528 -0.154214
0.977987 1.4013e-45 0.143038 -0.151927
0.978469 -1.4013e-45 0.136981 -0.154387
0.97787 1.4013e-45 0.143588 -0.152163
0.979434 -1.4013e-45 0.134462 -0.150432
0.980375 1.4013e-45 0.123703 -0.153499
0.979276 1.4013e-45 0.132826 -0.152893
0.978274 -1.4013e-45 0.141828 -0.151214
0.979207 -1.4013e-45 0.129625 -0.15605
0.978074 1.4013e-45 0.142211 -0.152142
0.978023 -1.4013e-45 0.143395 -0.151359
0.977657 1.4013e-45 0.147019 -0.150239
0.978521 -1.4013e-45 0.137265 -0.153801
0.97755 -1.4013e-45 0.147458 -0.150508
0.978435 -1.4013e-45 0.137653 -0.154003
0.977834 1.4013e-45 0.144178 -0.151836
0.979326 1.4013e-45 0.138225 -0.147696
0.977683 1.4013e-45 0.147444 -0.149654
0.978486 1.4013e-45 0.137993 -0.153375
0.977511 1.4013e-45 0.148043 -0.150183
0.977586 -1.4013e-45 0.150504 -0.147219
0.977011 1.4013e-45 0.155242 -0.146114
0.977493 1.4013e-45 0.15045 -0.147895
0.97669 -1.4013e-45 0.156905 -0.146482
0.978165 1.4013e-45 0.146459 -0.147459
0.977525 -1.4013e-45 0.151363 -0.146747
0.978062 1.4013e-45 0.145834 -0.148752
0.977638 1.4013e-45 0.149679 -0.147719
0.97706 1.4013e-45 0.154546 -0.146521
0.977956 1.4013e-45 0.146357 -0.148936
0.977007 1.4013e-45 0.154604 -0.146814
0.977846 1.4013e-45 0.146433 -0.149581
0.977479 -1.4013e-45 0.149794 -0.148648
0.97673 1.4013e-45 0.156387 -0.146769
0.977007 -1.4013e-45 0.153664 -0.1478
0.976671 1.4013e-45 0.156647 -0.146883
0.978227 1.4013e-45 0.145254 -0.148234
0.977583 1.4013e-45 0.150435 -0.147314
0.978607 -1.4013e-45 0.141207 -0.149633
0.97753 1.4013e-45 0.150279 -0.147824
0.978468 1.4013e-45 0.140846 -0.150876
0.978047 1.4013e-45 0.144703 -0.14995
0.978003 1.4013e-45 0.145524 -0.149442
0.977053 -1.4013e-45 0.153961 -0.147183
0.977821 -1.4013e-45 0.145842 -0.15032
0.977045 -1.4013e-45 0.153141 -0.14809
0.976709 1.4013e-45 0.156157 -0.147151
0.976983 1.4013e-45 0.153437 -0.148193
0.97866 -1.4013e-45 0.139989 -0.150422
0.977582 1.4013e-45 0.149453 -0.148317
0.978429 -1.4013e-45 0.139846 -0.152052
0.97702 -1.4013e-45 0.152942 -0.148463
0.978252 -1.4013e-45 0.139109 -0.153857
0.978813 -1.4013e-45 0.132837 -0.155816
0.978206 1.4013e-45 0.140556 -0.152827
0.978964 1.4013e-45 0.130547 -0.1568
0.978183 1.4013e-45 0.140291 -0.153219
0.978613 -1.4013e-45 0.136336 -0.154041
0.978562 1.4013e-45 0.135774 -0.154863
0.979441 -1.4013e-45 0.125114 -0.158245
0.978628 1.4013e-45 0.136668 -0.153656
0.978827 -1.4013e-45 0.0971281 -0.180176
0.978392 -1.4013e-45 0.110565 -0.174712
0.978654 -1.4013e-45 0.104903 -0.176725
0.977568 -1.4013e-45 0.129771 -0.165892
0.978002 1.4013e-45 0.121187 -0.169781
0.977361 -1.4013e-45 0.133231 -0.164364
0.977813 1.4013e-45 0.125317 -0.16786
0.977255 1.4013e-45 0.135211 -0.163373
0.977543 1.4013e-45 0.130286 -0.165639
0.977617 1.4013e-45 0.128296 -0.166748
0.978362 -1.4013e-45 0.11206 -0.173928
0.977819 -1.4013e-45 0.124614 -0.16835
0.968258 -3.69751e-40 -0.0676489 -0.240625
0.965072 -1.34009e-28 -0.0646162 -0.253893
0.96521 4.09331e-28 -0.0638387 -0.253565
0.964322 1.77951e-38 -0.0665495 -0.25623
0.964402 -1.88714e-39 -0.0673639 -0.255715
0.964408 -3.09116e-39 -0.0665827 -0.255899
0.964519 6.41647e-39 -0.0673324 -0.255282
0.96436 -1.83064e-37 -0.0665172 -0.256096
0.964408 -2.08547e-36 -0.0658956 -0.256077
0.964291 -8.01403e-42 -0.0675868 -0.256075
0.964316 2.86145e-42 -0.0677174 -0.255949
0.964302 3.01672e-41 -0.0672631 -0.256119
0.964952 1.66103e-19 -0.0617865 -0.255049
0.965497 -9.62655e-19 -0.0649216 -0.252191
0.965253 3.99152e-20 -0.0653412 -0.253018
0.964304 -1.66415e-27 -0.0664496 -0.256325
0.964401 -2.54437e-27 -0.0672781 -0.255743
0.964369 -9.15941e-27 -0.0661976 -0.256144
0.964369 -6.81654e-28 -0.0673719 -0.25584
0.964293 -9.88696e-29 -0.0669892 -0.256226
0.964313 1.47186e-27 -0.0664281 -0.256297
0.964278 2.42853e-29 -0.0673996 -0.256173
0.964301 1.86207e-30 -0.067654 -0.256021
0.964293 4.51408e-29 -0.0670945 -0.256199
0.963058 3.67853e-11 -0.0267439 -0.267961
0.999796 -0.00373716 -0.0022659 -0.0197318
0.999775 -0.00141752 -0.00192252 -0.0210876
0.998422 3.72126e-05 0.00367704 -0.0560317
0.99837 0.000500073 0.0057384 -0.0567801
0.998346 -0.000465816 0.00331735 -0.0573947
0.998543 -0.00020929 0.00496596 -0.0537293
0.998624 -0.000286733 0.0035175 -0.052331
0.998529 0.000340521 0.00251754 -0.0541584
0.998995 0.000200501 0.00311212 -0.0447205
0.99891 0.000986805 0.00386691 -0.0465127
0.998929 -0.000682355 0.00261393 -0.0461907
0.99707 6.69358e-05 0.00794103 -0.0760797
0.997073 -0.000112302 0.00828035 -0.0760013
0.997093 -1.66793e-05 0.00810125 -0.0757618
0.9984 0.000134949 0.00336419 -0.0564406
0.998357 7.83036e-05 0.00585484 -0.0570057
0.99836 -0.000267166 0.00411646 -0.0571019
0.998144 -0.000198545 0.00609854 -0.0605954
0.998224 -0.000122462 0.00476257 -0.0593821
0.998155 0.00038288 0.00419533 -0.0605793
0.998976 -0.000219715 0.00336181 -0.0451245
0.998892 -0.00134685 0.00498233 -0.0467827
0.998909 0.000654384 0.00240374 -0.0466269
0.997078 4.70155e-05 0.00819751 -0.0759518
0.997046 -2.29641e-05 0.0082193 -0.0763606
0.997076 -7.64863e-06 0.00831573 -0.0759673
0.998405 -5.17942e-05 0.00495362 -0.0562354
0.998341 -0.000142541 0.00533114 -0.0573288
0.998392 6.89568e-05 0.00343792 -0.0565766
0.99863 -6.68868e-05 0.00535246 -0.0520505
0.998595 0.000182158 0.00345091 -0.0528875
0.998601 -0.000198605 0.00386002 -0.0527449
0.997902 -4.13709e-05 0.00573891 -0.0644895
0.997853 -7.39143e-05 0.00693264 -0.0651186
0.997834 0.000103547 0.00589753 -0.065512
0.997062 3.07704e-05 0.00869041 -0.0761052
0.997093 -8.75307e-05 0.00839241 -0.0757323
0.997067 -0.000187457 0.00831001 -0.0760767
0.998427 8.57995e-05 0.00461639 -0.0558751
0.99836 0.00014989 0.00546053 -0.0569791
0.998388 0.000278265 0.00386113 -0.0566265
0.998217 -6.86673e-05 0.0055643 -0.059425
0.99821 -6.87151e-05 0.00446453 -0.0596435
0.998167 3.11184e-05 0.00519707 -0.0602961
0.99791 3.82949e-05 0.0059542 -0.064349
0.997847 -2.19362e-05 0.00673222 -0.0652325
0.99786 -0.000112499 0.00592426 -0.0651135
0.997081 2.50041e-05 0.00854158 -0.075876
0.997078 -2.03702e-06 0.00819535 -0.075944
0.997062 2.73596e-05 0.00841492 -0.0761346
0.998382 7.13019e-05 0.00308787 -0.0567797
0.998384 -0.000326622 0.00273752 -0.0567647
0.99835 -0.000611617 0.00337713 -0.0573116
0.998661 -0.000543233 0.00182959 -0.0517009
0.998694 0.000308362 0.00324344 -0.0509782
0.99875 -0.000824601 0.00242768 -0.0499186
0.999206 0.000664277 0.0016249 -0.0397963
0.999297 0.000278698 5.99474e-05 -0.0374944
0.99925 -0.000744191 0.00139984 -0.0386953
0.999564 -0.00296919 -0.00291414 -0.0292163
0.99961 0.00148912 -0.00194332 -0.0278225
0.999549 -0.00218676 -0.00181012 -0.0298852
0.998329 -0.000172742 0.00249099 -0.0577385
0.998387 2.5126e-05 0.00266391 -0.0567093
0.998352 0.00021951 0.00464771 -0.0572007
0.99805 9.4481e-05 0.004103 -0.0622829
0.99803 1.61907e-05 0.00506957 -0.062529
0.998082 0.000139471 0.00449459 -0.0617352
0.99911 0.00147976 0.000862278 -0.0421511
0.999219 0.00020446 -0.00192108 -0.0394588
0.999253 0.000978173 0.00127247 -0.0386209
0.999618 -0.000406968 -0.00213331 -0.0275605
0.999555 0.00219117 0.00117387 -0.0297274
0.999558 0.00297937 -0.000100244 -0.029593
0.998338 -0.000773451 0.00492917 -0.0574166
0.998398 6.71174e-05 0.00259984 -0.0565215
0.99843 -0.000142914 0.00363714 -0.0558892
0.998759 -0.000124995 0.00106999 -0.0497895
0.998653 6.87831e-05 0.00312581 -0.0517918
0.998731 -0.000428393 0.00355806 -0.050231
0.997549 -7.95865e-05 0.00653118 -0.0696598
0.997573 -7.70843e-05 0.00590824 -0.0693785
0.997568 -1.1287e-05 0.00662506 -0.0693844
0.999574 -0.00147288 0.00217442 -0.0290831
0.999605 0.0011715 0.00131838 -0.0280334
0.999548 0.000745593 -0.000337035 -0.0300448
0.998283 0.000267791 0.00523645 -0.0583482
0.998346 0.000267047 0.00329199 -0.0573963
0.998428 -0.000137848 0.00465861 -0.0558515
0.99807 -2.26898e-05 0.00438032 -0.0619498
0.997981 0.000273533 0.0053928 -0.0632858
0.998067 0.000235172 0.00581843 -0.0618666
0.997544 -8.22755e-05 0.00711994 -0.0696769
0.997579 -1.34544e-05 0.00602837 -0.0692742
0.997575 9.09221e-05 0.00654125 -0.0692921
0.999613 -0.000253181 0.00453062 -0.0274491
0.999643 0.000953747 -0.000212967 -0.026717
0.99955 -0.00185383 0.00273821 -0.02981
0.998404 -0.000168156 0.00317514 -0.0563844
0.99837 -0.000729569 0.00579231 -0.0567657
0.998308 0.000172151 0.00397005 -0.0580151
0.998663 0.000852859 0.0043595 -0.0514983
0.998778 -0.000565056 0.00286646 -0.0493372
0.998673 -0.000393233 0.00124028 -0.0514832
0.999349 0.000726077 0.000755183 -0.0360738
0.999245 0.0011368 0.00472261 -0.0385449
0.999111 -0.000840614 0.00109827 -0.0421385
0.997254 8.15908e-05 0.00716708 -0.0737103
0.997238 -2.07101e-05 0.00763579 -0.0738824
0.997268 1.88921e-06 0.00747448 -0.0734878
0.998417 -0.0002203 0.00305764 -0.0561601
0.998356 0.000170254 0.00556373 -0.0570561
0.99835 0.000612936 0.00472939 -0.0572307
0.998018 -0.000323497 0.0066841 -0.0625714
0.998099 -4.75528e-05 0.00500258 -0.0614317
0.998042 -0.000309504 0.00397536 -0.0624223
0.999301 -0.00174022 0.00309224 -0.0372204
0.999202 -0.000476643 0.00523056 -0.0396
0.999223 -0.000838728 0.00193954 -0.039365
0.997269 -4.50751e-05 0.0071831 -0.073507
0.997234 0.0001796 0.00773219 -0.0739166
0.997259 2.56459e-05 0.00796667 -0.0735532
0.998432 -0.000308599 0.00472719 -0.055784
0.998344 -0.000990237 0.00522283 -0.0572763
0.998397 -0.000191628 0.00352103 -0.0564969
0.998741 0.000384817 0.0045214 -0.0499583
0.998707 0.000395823 0.00310248 -0.0507474
0.998664 -0.000283782 0.00411058 -0.0515081
0.997599 -0.000146402 0.00645922 -0.0689556
0.997553 0.000102051 0.00760679 -0.0695059
0.997532 -5.78942e-05 0.00687309 -0.0698747
0.997245 5.15655e-05 0.00817136 -0.0737206
0.997276 2.44094e-05 0.00766511 -0.0733675
0.997257 -2.41418e-05 0.00740428 -0.0736437
0.998387 0.000575266 0.00479319 -0.0565726
0.998401 0.000415317 0.00520935 -0.0562923
0.998388 0.000243771 0.00449308 -0.0565823
0.998084 -0.000237619 0.00606409 -0.0615792
0.998069 -0.000160344 0.00487557 -0.0619179
0.998053 -7.7646e-05 0.00595937 -0.0620937
0.997589 -0.00010097 0.00689741 -0.069057
0.997545 -6.57064e-05 0.00741276 -0.0696336
0.997558 -4.11422e-06 0.00662584 -0.0695324
0.997255 0.000123874 0.00834099 -0.0735773
0.997275 -2.26803e-05 0.00774476 -0.0733713
0.997246 5.33096e-05 0.0078548 -0.0737493
0.998645 0.000351202 0.00182833 -0.0520046
0.998675 -0.000372255 0.00120932 -0.0514455
0.998653 0.000612059 0.00222797 -0.0518407
0.998862 -0.000320668 0.000344154 -0.0476873
0.998886 -0.000441973 0.00222819 -0.0471299
0.998918 0.000598899 0.00125704 -0.0464952
0.999237 -0.000382419 -0.00190045 -0.0390168
0.999197 0.00157296 -0.00235376 -0.0399725
0.999218 -9.16943e-06 0.00125024 -0.0395201
0.999471 0.00129894 -0.00462575 -0.0321774
0.99942 0.00130792 -0.00273727 -0.0339225
0.999504 0.00094674 0.000351451 -0.0314881
0.997998 0.000230998 0.00406821 -0.0631163
0.998046 -7.82612e-06 0.0038649 -0.06236
0.998074 -7.25735e-05 0.00449709 -0.0618772
0.998857 0.00109916 0.000293475 -0.0477819
0.998908 -0.000511932 0.00361753 -0.0465708
0.99892 0.000389738 0.000446022 -0.0464638
0.999123 -0.000712518 0.000236403 -0.0418679
0.999246 0.00105567 -0.0018451 -0.0387605
0.999252 0.000374043 0.00289485 -0.0385524
0.999402 0.00089559 -0.00335101 -0.0344019
0.999438 5.14926e-05 0.00302622 -0.0333983
0.999489 -0.000449251 -0.00149423 -0.0319372
0.998626 0.000501227 0.00215337 -0.0523624
0.998741 0.000609051 0.00233879 -0.0501146
0.998667 -0.000170463 0.00398482 -0.0514552
0.997866 0.000103101 0.00482284 -0.0651109
0.997851 0.000156233 0.00548424 -0.0652879
0.997877 0.000155812 0.00494897 -0.0649447
0.999237 -0.000923225 0.0019065 -0.0389985
0.999202 0.000997117 -0.00167281 -0.0398823
0.999257 -0.000285914 0.000264697 -0.0385307
0.999539 0.00187874 -0.0015857 -0.0302591
0.999331 -0.00267003 -0.000762738 -0.0364583
0.99951 0.00158753 0.00254285 -0.031149
0.998012 -0.000323241 0.00399384 -0.0628895
0.998075 0.000157235 0.00413079 -0.0618849
0.998034 0.00025339 0.00565918 -0.0624206
0.997847 0.000128953 0.00473147 -0.0654113
0.997859 7.24621e-05 0.0057197 -0.065153
0.997896 0.000328654 0.00494612 -0.0646492
0.999162 0.000783748 0.00436815 -0.0406993
0.999276 -0.000967974 -0.00247974 -0.0379436
0.999231 0.00074004 0.00237661 -0.0391356
0.999515 0.000187174 -0.00165025 -0.0311073
0.999319 0.00225576 -0.00048719 -0.0368267
0.999433 0.000536443 0.00126018 -0.0336536
0.998618 0.000127478 0.00429533 -0.0523769
0.998697 -0.000452276 0.000888117 -0.0510247
0.99876 0.000359825 0.00250939 -0.0497126
0.998956 0.000975065 0.000654899 -0.0456712
0.998878 -0.000983175 0.00215707 -0.047293
0.998878 -7.12304e-05 0.0040018 -0.0471989
0.997534 -0.000137054 0.00645899 -0.0698866
0.997569 0.000131806 0.00604849 -0.0694284
0.997535 5.61994e-05 0.00638421 -0.0698774
0.999372 2.61813e-05 0.00409668 -0.0351887
0.999484 -2.51005e-05 0.00112727 -0.0321081
0.999433 0.00238465 0.000788238 -0.0335647
0.998015 4.65833e-06 0.0058903 -0.0626938
0.998018 -8.58695e-05 0.00387954 -0.0628164
0.998088 0.000116077 0.00461986 -0.061637
0.998888 -0.000555532 0.00102393 -0.04713
0.998859 -0.000139119 0.00355776 -0.0476323
0.998912 -0.00138586 0.00346525 -0.0464842
0.997543 -0.000143507 0.00652551 -0.0697585
0.997585 2.4012e-05 0.00591642 -0.0692068
0.997545 -8.04697e-05 0.00692066 -0.0696875
0.999461 -0.00180596 0.00316333 -0.0326293
0.999542 -0.000370766 0.00212073 -0.0302014
0.999451 0.000903887 9.55947e-05 -0.033134
0.99863 -0.000124533 0.00398054 -0.0521843
0.998679 0.000756858 0.00173006 -0.0513439
0.998761 -9.8657e-05 0.0039129 -0.0496005
0.997908 0.000137884 0.00523116 -0.0644312
0.997816 -0.000200736 0.00538641 -0.0658409
0.997854 -0.000157249 0.00629039 -0.0651787
0.997529 -0.000108125 0.00715644 -0.0698941
0.99755 -0.000109322 0.00628509 -0.0696719
0.997601 -7.1428e-05 0.00643126 -0.0689299
0.999436 -0.00199677 0.00146164 -0.03348
0.999477 0.00120502 -0.000693727 -0.0323218
0.999453 0.000796089 0.00473892 -0.032724
0.998004 0.00049132 0.00568917 -0.062893
0.998075 0.000202535 0.00389697 -0.0619023
0.998084 -0.000163461 0.0055678 -0.0616144
0.997881 -0.000199924 0.00486573 -0.0648815
0.997849 0.000249976 0.00580271 -0.0652992
0.997894 -0.00010558 0.00620549 -0.0645654
0.997539 -6.09098e-05 0.00731783 -0.0697361
0.997557 7.75108e-05 0.00586558 -0.0696085
0.997574 -0.000118744 0.00680165 -0.0692756
0.999507 0.000835364 0.000881087 -0.0313585
0.99945 0.00137982 -0.000247929 -0.0331192
0.999521 0.000331463 0.00209771 -0.0308893
0.998745 -5.52756e-05 0.00195973 -0.0500463
0.998658 0.000728828 0.00395402 -0.0516253
0.998683 0.00126534 0.00169852 -0.0512688
0.998908 0.000345589 0.00522558 -0.0464164
0.998938 0.00124039 0.00238517 -0.0460001
0.998869 -0.000969786 0.00196695 -0.0474971
0.999305 0.000456271 0.000235632 -0.0372609
0.999268 0.00156661 0.00275336 -0.0381185
0.999164 0.000728689 0.00117848 -0.0408587
0.997352 -0.000182792 0.00686166 -0.0724021
0.997349 0.000175716 0.00697288 -0.0724313
0.997373 0.00010744 0.00707892 -0.0720869
0.99809 0.000136258 0.00448103 -0.0616102
0.998045 -0.000241898 0.0060059 -0.062207
0.99799 0.000230123 0.00491399 -0.0631735
0.998846 -0.00141543 0.00507301 -0.047745
0.998977 -0.000652384 0.00352289 -0.0450858
0.998948 -0.000745561 0.00169707 -0.0458234
0.999299 -0.000993929 0.000656895 -0.0374249
0.999285 0.00135266 0.00269065 -0.0376799
0.999186 -0.00122005 0.00352694 -0.04017
0.997371 -7.46571e-05 0.00674782 -0.0721557
0.997342 -0.00012321 0.00750596 -0.0724797
0.997391 1.64493e-05 0.0069239 -0.0718518
0.998745 0.00033197 0.00220412 -0.0500341
0.998721 3.67879e-05 0.00520986 -0.0502939
0.998643 -0.000405398 0.00277925 -0.0520117
0.997829 0.000133577 0.00651927 -0.0655342
0.99789 0.000195781 0.00573785 -0.0646686
0.997856 -9.05929e-05 0.00532805 -0.0652305
0.99927 -0.000788737 0.00279745 -0.0380951
0.999224 0.000781874 0.00378437 -0.0391964
0.999247 -0.00137224 -0.000483923 -0.0387693
0.997386 -2.5621e-05 0.00679724 -0.0719422
0.997356 0.000106342 0.00727222 -0.0723059
0.997365 0.000214473 0.00779699 -0.0721292
0.99809 -0.000156291 0.00435308 -0.0616203
0.998071 -0.000120591 0.00612747 -0.0617787
0.998017 -0.000146871 0.00551307 -0.0627018
0.997813 -0.000402259 0.00678769 -0.0657431
0.997891 0.00016094 0.00611162 -0.0646217
0.997877 0.000381968 0.00525853 -0.06491
0.999315 0.00106157 0.0037006 -0.0368071
0.999272 0.000742437 0.00310803 -0.0380198
0.999281 -0.000811981 0.00271843 -0.0378024
0.997379 -0.000214847 0.00686557 -0.0720238
0.997334 2.83444e-05 0.00754803 -0.072582
0.997368 -2.94865e-06 0.00755243 -0.0721095
0.998758 0.0004588 0.004094 -0.0496546
0.998628 0.000103553 0.0053818 -0.0520959
0.998719 -0.000203844 0.00214702 -0.0505593
0.998931 -0.000287321 0.00372402 -0.0460822
0.998918 -0.000395509 0.00136323 -0.0464921
0.998904 0.000956223 0.00296817 -0.0466967
0.997581 -0.000133929 0.00646561 -0.0692177
0.99756 -0.000251043 0.00724446 -0.0694321
0.997533 -0.000200607 0.0065637 -0.0698903
0.997363 -0.00018934 0.00770013 -0.0721698
0.997391 -0.000201047 0.00725388 -0.0718224
0.997358 0.000119964 0.00710918 -0.0722892
0.998079 0.00021512 0.00551726 -0.061701
0.998064 0.000206965 0.00615589 -0.0618869
0.998052 -0.000129911 0.00479979 -0.0621991
0.998913 0.000775645 0.00430181 -0.0464009
0.998915 0.000519674 0.00334345 -0.0464429
0.998865 0.000573194 0.004157 -0.0474439
0.997592 9.11222e-05 0.0062853 -0.0690725
0.997571 -0.00016395 0.00719899 -0.0692849
0.997546 0.000134088 0.00677776 -0.0696901
0.997357 -2.49672e-05 0.00789208 -0.0722297
0.997401 3.67616e-05 0.00748309 -0.0716666
0.997374 -5.4836e-06 0.00693568 -0.0720924
0.998743 7.384e-05 0.00465909 -0.0499023
0.998734 0.000340309 0.00395489 -0.050139
0.998722 -0.00101721 0.00389984 -0.0503841
0.99788 0.000129135 0.00644574 -0.0647669
0.997878 -0.000273391 0.00547355 -0.0648865
0.997847 9.93424e-05 0.00609578 -0.0652989
0.997601 6.77815e-05 0.00722046 -0.0688525
0.997525 -0.000218158 0.00758753 -0.0699014
0.997555 0.00017325 0.00668793 -0.0695631
0.997385 -0.000236035 0.00778861 -0.0718547
0.997395 -0.000143981 0.00717908 -0.0717709
0.997341 -5.3451e-05 0.00757592 -0.0724885
0.998088 -0.000122212 0.00586738 -0.0615274
0.998074 0.000177937 0.00630195 -0.0617208
0.998077 0.000140869 0.00580682 -0.0617185
0.997873 -0.000160121 0.00673145 -0.0648427
0.997891 0.00013525 0.00626382 -0.0646048
0.997848 7.29647e-05 0.00634206 -0.0652619
0.997589 0.000196807 0.00719148 -0.0690227
0.99757 0.000160244 0.00734571 -0.0692844
0.997575 -0.000129785 0.00708399 -0.0692397
0.997389 0.000112149 0.00770592 -0.0718008
0.9974 -0.000131527 0.00756863 -0.071668
0.99736 0.000171401 0.00760638 -0.0722114
